{
  "input_size": 10,
  "hidden_size": 8,
  "hidden_size2": null,
  "output_size": 3,
  "learning_rate": 0.05,
  "activation": "sigmoid",
  "dropout_rate": 0.0,
  "use_two_hidden_layers": false,
  "weights_input_hidden": [
    [
      0.2594717612958976,
      -0.13598231624578624,
      -0.3176517384131066,
      0.04150217139759254,
      -0.3691450270721529,
      0.8027126856255303,
      0.25950540890702606,
      -0.13420372598239663
    ],
    [
      0.6910046722628795,
      0.3736448502339777,
      0.6516973949147521,
      0.5535605756823844,
      -0.9772677632517415,
      -0.5998201797737128,
      0.7221222988799754,
      -0.07346621298347569
    ],
    [
      -0.6698157534181822,
      -0.33809286670441674,
      -0.793811260149106,
      -0.5184630236749751,
      0.5720997029635436,
      -1.201223073700675,
      -0.6947583002003447,
      -0.00471539620908801
    ],
    [
      -0.10940999115127155,
      -0.36609501309342235,
      -0.59852416927132,
      -0.23670369174899317,
      -0.07036850754230103,
      -0.8325119072564237,
      -0.24816658729119814,
      -0.11055771332493784
    ],
    [
      0.8512340242249005,
      0.8052435924865132,
      2.7439171691459805,
      0.9223047763559742,
      -0.629226233578068,
      -3.018348705640147,
      0.8410475328572001,
      0.3098611096938301
    ],
    [
      3.2115685182082934,
      2.317842698266062,
      3.5698467245407626,
      2.2878664566632025,
      -2.8810922134489645,
      -2.9668309643147306,
      2.9212776724580394,
      0.014023294205825782
    ],
    [
      0.20388067305784696,
      0.14360611012720761,
      0.20811741857887195,
      0.16181299329477083,
      -0.3648843828148764,
      -0.39296241976430796,
      0.15297503183216501,
      0.08675755128578438
    ],
    [
      -0.3940055765707336,
      -0.10659333404318666,
      -0.5106283075675172,
      -0.19171482833892645,
      0.21298721823090966,
      0.7113924533078961,
      -0.3586458911550977,
      0.0064749340817622705
    ],
    [
      0.012847266326867375,
      0.1609645384440691,
      -0.05400271474912681,
      0.04103452094184473,
      0.006678030050411075,
      0.149210945930769,
      0.06239429139504353,
      -0.05026644865730829
    ],
    [
      0.04248841822016296,
      0.14332698567484795,
      0.016236295647391506,
      -0.012717296984403024,
      0.06276357312045762,
      0.004197729957454709,
      0.05950609033760923,
      0.09702809563218251
    ]
  ],
  "weights_hidden_output": [
    [
      2.002809318832472,
      1.3807368271758858,
      1.2554042889986312
    ],
    [
      1.0292908442648976,
      0.9043044030129465,
      1.0804517438935426
    ],
    [
      1.2961178299263,
      1.9271703524244086,
      2.4801968536422967
    ],
    [
      1.156291340699893,
      0.9941950359256817,
      0.9560500746616697
    ],
    [
      -2.2250640103290653,
      -2.4397449330746044,
      -2.130485759829979
    ],
    [
      -1.4148046526452391,
      -1.7543797683672362,
      -3.9846480601709424
    ],
    [
      1.7408953300740955,
      1.4385299913765475,
      1.0177389604526808
    ],
    [
      -0.43413718815243324,
      -0.41214250809982583,
      -0.3688120516060233
    ]
  ],
  "bias_hidden": [
    [
      -0.15053971726548135,
      -0.3325401916354495,
      0.2213696226151108,
      -0.24339896224014898,
      0.3242981524007033,
      0.22553120077065336,
      -0.046939085352596624,
      0.029533676760794915
    ]
  ],
  "bias_output": [
    [
      -1.2684117930232202,
      -1.465465183894848,
      -1.3162624855840794
    ]
  ]
}