{
  "weights_input_hidden": [
    [
      0.06896117613310879,
      -0.044810834912598116,
      0.13323372523552515,
      -0.3585159629664647,
      -0.1058647894257853,
      -0.15610664225247808,
      0.23460576276299205,
      -0.13318618729564366
    ],
    [
      -0.14584922840825346,
      0.22118620695304955,
      -0.12932603322161954,
      0.5586228917190981,
      -0.1918406261613293,
      0.40300510500477066,
      -0.32877574340853416,
      0.33626947269214813
    ],
    [
      -0.0955590575065371,
      -0.46087998205534736,
      -0.2020003479150547,
      -0.3849108001547078,
      0.33902525513928927,
      -0.6543072603094434,
      0.11377771587023171,
      -0.2899833756649988
    ],
    [
      0.1063903898962518,
      -0.43866316999852467,
      -0.34161558967099126,
      -0.2047272366732231,
      0.08666210373654848,
      -0.32674591765137706,
      -0.17267705213452983,
      -0.18689104943702733
    ],
    [
      0.6262998703913094,
      1.3607014342439512,
      -0.3400764239169622,
      2.6481620398639523,
      -0.09424462959042915,
      1.4360923495349345,
      -1.3635896868636639,
      1.6166453090446145
    ],
    [
      0.19160663278974047,
      1.7115572363664107,
      -0.8761707060003018,
      3.407713219032541,
      -1.0588195387145665,
      2.4338863922618614,
      -2.8262748478464688,
      2.625187941898277
    ],
    [
      -0.06212543685592237,
      0.12618176338317194,
      -0.1974364579188637,
      0.31059123778376924,
      -0.10605614653353973,
      0.3170775629042431,
      -0.38440107579337685,
      0.2353572400296819
    ],
    [
      -0.054541968422759685,
      -0.037730081460879375,
      0.13650382892053703,
      -0.2371492750995585,
      -0.05191363459292423,
      0.01556696187800472,
      0.1820577722216509,
      0.02560136210870586
    ],
    [
      -0.042592619595173055,
      0.20226209336603607,
      0.0912343416421054,
      -0.0026167221989164676,
      -0.11372326887781714,
      -0.005549281604875953,
      0.10395746943272634,
      0.11208002026631021
    ],
    [
      0.12111795786712164,
      0.20296123597802432,
      -0.02338329022587487,
      0.14402913800201803,
      0.023886140995727757,
      0.013689696831248372,
      0.02763593196454356,
      0.02821602745677114
    ]
  ],
  "weights_hidden_output": [
    [
      -0.08370099189744604,
      -0.13892697380006314,
      0.17528196286121908
    ],
    [
      1.1605403889911512,
      1.0192471622347776,
      1.0364187366264708
    ],
    [
      -0.3652916076532076,
      -0.7157154013225948,
      -1.2066678697307869
    ],
    [
      1.8650249952098232,
      2.1382270579464167,
      2.8446103846698305
    ],
    [
      -0.923772099410911,
      -1.05329471261044,
      -0.6786906631059927
    ],
    [
      1.5543503353876609,
      1.537125526165222,
      1.3888859397269568
    ],
    [
      -1.8183006512347168,
      -1.790698523923894,
      -2.6780889566491966
    ],
    [
      1.3794661346652195,
      1.4991830811406706,
      1.8800116138603755
    ]
  ],
  "bias_hidden": [
    [
      -0.09411369783183939,
      -0.3754742542071682,
      0.2109005172117117,
      -0.46861572949608354,
      0.21878730881508882,
      -0.31363035239350384,
      0.5311936274468989,
      -0.5518294834118894
    ]
  ],
  "bias_output": [
    [
      -0.4815310766917378,
      -0.9273082371901904,
      -1.1116744396231615
    ]
  ],
  "input_size": 10,
  "hidden_size": 8,
  "output_size": 3,
  "learning_rate": 0.01
}