{
  "weights_input_hidden": [
    [
      0.04321993963206406,
      0.031161114364624435,
      0.14591116123650377,
      -0.38924536502205753,
      -0.18937192097174543,
      -0.043395117189356146,
      0.17508316282338995,
      -0.06972061423813102
    ],
    [
      -0.16287078053040566,
      0.3123302368965276,
      -0.19297341491748526,
      0.672046012800957,
      -0.29038057084480867,
      0.5419717696531143,
      -0.48968393083297335,
      0.4685401255244453
    ],
    [
      0.02520037761889283,
      -0.5227973952523922,
      -0.39628597801460896,
      -0.4550143106827602,
      0.5068538336882628,
      -0.7442686737099684,
      0.04294341722525629,
      -0.27318593848840317
    ],
    [
      0.14602221647011704,
      -0.42536967644798857,
      -0.40532813799787637,
      -0.1603297833798452,
      0.11292639869889902,
      -0.3049404894102483,
      -0.22851900812919754,
      -0.15873505539630817
    ],
    [
      0.6849142428278392,
      1.181570632509405,
      -0.34090926798932325,
      3.004279335502373,
      0.12424146473892517,
      1.2298076640947895,
      -1.1970424211680981,
      1.488431203801427
    ],
    [
      0.17006012817081523,
      1.9282710773650469,
      -0.9636878527849245,
      3.780478681215604,
      -1.2413472223207889,
      2.7393765384240156,
      -3.2120298728901235,
      2.9154950022980737
    ],
    [
      -0.06549141741290185,
      0.1547722443390034,
      -0.2179776437646862,
      0.3563314772334347,
      -0.1350330082394203,
      0.3567360301093801,
      -0.43840644166926757,
      0.2760235708957435
    ],
    [
      -0.06802800974669022,
      -0.09456188618478158,
      0.1835545614291154,
      -0.47525696067017686,
      -0.03054772637487599,
      -0.06505080035657156,
      0.32751412589043205,
      -0.07058048944646297
    ],
    [
      -0.05804136259858199,
      0.2173028293371724,
      0.1000426503067314,
      -0.09818420418054333,
      -0.1530970650343105,
      0.027912962753809247,
      0.09837531865855303,
      0.11147359104363207
    ],
    [
      0.12111795786712164,
      0.20296123597802432,
      -0.02338329022587487,
      0.14402913800201803,
      0.023886140995727757,
      0.013689696831248372,
      0.02763593196454356,
      0.02821602745677114
    ]
  ],
  "weights_hidden_output": [
    [
      -0.20471913335699726,
      -0.2770076350257558,
      0.1658907898267342
    ],
    [
      1.249032149674618,
      1.0642344001732855,
      0.9243835645351807
    ],
    [
      -0.3700643428539809,
      -0.7010689400228025,
      -1.4805870933228107
    ],
    [
      1.7971019445677388,
      2.2492547662456484,
      3.129237444075196
    ],
    [
      -1.2078549104349166,
      -1.279172524219947,
      -0.6351808007691846
    ],
    [
      1.7560949348284163,
      1.6446161491087656,
      1.2635775910546967
    ],
    [
      -1.9984918167236732,
      -1.882764128808624,
      -2.9738239217989633
    ],
    [
      1.4764625500586421,
      1.516902592347424,
      1.918236569778428
    ]
  ],
  "bias_hidden": [
    [
      -0.09617693507848929,
      -0.3144315242109724,
      0.2634265659694437,
      -0.20568369991499028,
      0.2119966308143249,
      -0.16140063769879906,
      0.4960199193664245,
      -0.4757978896899915
    ]
  ],
  "bias_output": [
    [
      -0.5256402249090056,
      -1.0778590048442105,
      -1.269487763137186
    ]
  ],
  "input_size": 10,
  "hidden_size": 8,
  "output_size": 3,
  "learning_rate": 0.01,
  "activation": "sigmoid"
}