{
  "weights_input_hidden": [
    [
      0.057580076435192785,
      -0.008130695109052899,
      0.13782544290192464,
      -0.36133080793465344,
      -0.14433219276520148,
      -0.10163818794878782,
      0.2036243992268367,
      -0.10083143079769043
    ],
    [
      -0.15402258228074103,
      0.26888812038984156,
      -0.16053713636166048,
      0.6257993216174542,
      -0.2417165981872322,
      0.4760290726591755,
      -0.4105502976796258,
      0.40500612316994916
    ],
    [
      -0.03500088152975384,
      -0.49616601238862823,
      -0.29526900877715345,
      -0.4052122439693483,
      0.43197877519537947,
      -0.7015795642302669,
      0.07973323011683149,
      -0.2809088336995183
    ],
    [
      0.12867181298495942,
      -0.43406915507413496,
      -0.37719898147736,
      -0.16566973870260868,
      0.10806207567947754,
      -0.317340575367126,
      -0.20862283628407324,
      -0.16824562172101265
    ],
    [
      0.6548759684751634,
      1.2661599933443604,
      -0.3374841261393767,
      2.785314578027809,
      0.01863669405259822,
      1.324599045038018,
      -1.2722988684759162,
      1.5443953558865058
    ],
    [
      0.18196872183253732,
      1.8332882033793256,
      -0.9300424470449056,
      3.619270604333959,
      -1.1596470470417135,
      2.603166979600597,
      -3.04166829592027,
      2.7885984832861395
    ],
    [
      -0.06353264551282685,
      0.1413190631478625,
      -0.20819539528489378,
      0.3357551267504698,
      -0.12080920246905413,
      0.33809094380831367,
      -0.41268395123067547,
      0.2569320831886518
    ],
    [
      -0.062498268824935206,
      -0.06591948324391322,
      0.16143260064319745,
      -0.351973313910302,
      -0.04288309566712393,
      -0.022808116959291976,
      0.2555693398435101,
      -0.02259922318298524
    ],
    [
      -0.05480111166991125,
      0.21427618391460396,
      0.1045067544083889,
      -0.05671629556690136,
      -0.14114562426299304,
      0.020593253930123623,
      0.10751111036700568,
      0.11016631076191245
    ],
    [
      0.12111795786712164,
      0.20296123597802432,
      -0.02338329022587487,
      0.14402913800201803,
      0.023886140995727757,
      0.013689696831248372,
      0.02763593196454356,
      0.02821602745677114
    ]
  ],
  "weights_hidden_output": [
    [
      -0.14438953268663907,
      -0.2077383706102754,
      0.17256347597519853
    ],
    [
      1.2068075001646736,
      1.0487566111655344,
      0.9835247495367669
    ],
    [
      -0.36904635762173366,
      -0.7092023942871911,
      -1.349335890007907
    ],
    [
      1.8381000513672865,
      2.1875293358894887,
      2.993819088828703
    ],
    [
      -1.068714688136878,
      -1.1712750418049132,
      -0.6584068689013768
    ],
    [
      1.6577746195336,
      1.5992231053439898,
      1.3335369567607
    ],
    [
      -1.9082380699399648,
      -1.8413109874122577,
      -2.841947294685279
    ],
    [
      1.4305838358910385,
      1.515462799568559,
      1.9091061601837378
    ]
  ],
  "bias_hidden": [
    [
      -0.09535878172692552,
      -0.347440825823022,
      0.23807721363477238,
      -0.325919525165421,
      0.22186474436918832,
      -0.24168049261349192,
      0.5155393820764393,
      -0.515362326400787
    ]
  ],
  "bias_output": [
    [
      -0.507256679353413,
      -1.0008322903393783,
      -1.188367259388608
    ]
  ],
  "input_size": 10,
  "hidden_size": 8,
  "output_size": 3,
  "learning_rate": 0.01
}