{
  "input_size": 10,
  "hidden_size": 8,
  "hidden_size2": null,
  "output_size": 3,
  "learning_rate": 0.01,
  "activation": "sigmoid",
  "dropout_rate": 0.0,
  "use_two_hidden_layers": false,
  "weights_input_hidden": [
    [
      0.11280372550806708,
      -0.3052274563872028,
      0.292680546076115,
      0.02098447986578296,
      0.03759467339754526,
      -0.21730104053124852,
      -0.32578175390202496,
      -0.1584724024772987
    ],
    [
      -0.32330188526739395,
      0.00824219363315484,
      -0.15868697041868057,
      0.13391336393078737,
      -0.05627031219420445,
      0.2537710361305744,
      0.29422057516665956,
      -0.012739540818340273
    ],
    [
      0.08379971330899938,
      -0.31296655326123696,
      0.10736857643623658,
      -0.20586557980388917,
      -0.09099922662351499,
      -0.5889532281617499,
      -0.5605201527714659,
      -0.3846934208418463
    ],
    [
      -0.176935731916766,
      -0.4945204423708795,
      0.1352415099651622,
      -0.23222266147625206,
      -0.31216248303654204,
      -0.4031080626246981,
      -0.4661635464379374,
      -0.39423042642113143
    ],
    [
      -0.5940729172016005,
      2.09028340799469,
      -1.6867512176808068,
      -0.5506213074689339,
      0.5855919981313751,
      2.624526676400523,
      2.091807367062986,
      0.7324857503305666
    ],
    [
      -0.72680063088542,
      1.8082177642908008,
      -2.2006435102972355,
      -0.5366940346197265,
      0.5829149022032043,
      2.6779772164249467,
      2.1469115013146074,
      0.5472642604779193
    ],
    [
      -0.11267994536016968,
      0.14537899370728344,
      -0.17703975843498407,
      -0.0925436189935355,
      -0.11457650399193166,
      0.03539571643541503,
      -0.011090562355056123,
      -0.09227260698684814
    ],
    [
      -0.004061908823261988,
      -0.01728941320125259,
      -0.011295888145598577,
      -0.09753957223980401,
      -0.061733203173316584,
      0.14349470968629496,
      -0.2188863141586273,
      0.013442942073641405
    ],
    [
      0.05733546947686353,
      0.2047157091245436,
      0.008686907885002619,
      0.17580171739809097,
      0.11416516698860714,
      0.05458346691996997,
      0.17664028463696566,
      -0.06429681083481771
    ],
    [
      0.04476211992171786,
      0.010817370728429865,
      0.08934894145005967,
      0.060875541430554805,
      0.15645081265808014,
      -0.12772006635527847,
      0.008482229973727327,
      0.005760881554410127
    ]
  ],
  "weights_hidden_output": [
    [
      -0.5483378605577103,
      -0.7901166083429183,
      -0.9265881355982012
    ],
    [
      1.2248522318218877,
      1.3849206062035302,
      1.7460143557792547
    ],
    [
      -1.5492070026262723,
      -1.7586229473043176,
      -2.2704067387423974
    ],
    [
      -0.3522581349167126,
      -0.49667337104853393,
      -0.9506177370397118
    ],
    [
      0.3671056412891811,
      0.14587965980169518,
      0.33359968886170943
    ],
    [
      1.8397848001542594,
      2.128110560264148,
      2.3366056264753383
    ],
    [
      1.6420102951327216,
      1.4694765519098476,
      1.844037040936025
    ],
    [
      0.44266908031046825,
      0.2843797844310434,
      0.3584116809196133
    ]
  ],
  "bias_hidden": [
    [
      0.19686228126353156,
      -0.5051676674155628,
      0.5714088351569957,
      0.13964913227144987,
      -0.14534204649801022,
      -0.6908695303192223,
      -0.5375994858696123,
      -0.1432679143113718
    ]
  ],
  "bias_output": [
    [
      -0.5253626995719503,
      -0.7560798783133948,
      -0.774505044277763
    ]
  ]
}