{
  "weights_input_hidden": [
    [
      0.06694625175834433,
      -0.03776688701897606,
      0.13389777220658006,
      -0.35711094855346837,
      -0.11294033666944776,
      -0.14562001872945143,
      0.2283451977449383,
      -0.12671404119257326
    ],
    [
      -0.14734600588601743,
      0.23101796093794516,
      -0.13558406290383007,
      0.5738777916493736,
      -0.20176961497243953,
      0.41807814072782123,
      -0.34539258551474494,
      0.3504402282862487
    ],
    [
      -0.08373052467380551,
      -0.46834262791576486,
      -0.21952185000574925,
      -0.3868053781677714,
      0.3583777308763508,
      -0.6637217352552326,
      0.10770237930586282,
      -0.28799968315326746
    ],
    [
      0.11110958593889361,
      -0.43833792995236787,
      -0.34869989719429223,
      -0.19545104789779305,
      0.0922753959061714,
      -0.32548494266645084,
      -0.17994132109839778,
      -0.18306455322528783
    ],
    [
      0.6317951530936333,
      1.3409088958115485,
      -0.338501198400968,
      2.6675104421499984,
      -0.0711248799575905,
      1.412261582323532,
      -1.3430159512281368,
      1.6003445837428274
    ],
    [
      0.18997754367947517,
      1.738654944101601,
      -0.8889853588562463,
      3.4552751427356188,
      -1.080852726263695,
      2.4711568380372357,
      -2.8739935572810977,
      2.6616489950093336
    ],
    [
      -0.06235534386460633,
      0.12938161189134703,
      -0.1996973713953575,
      0.3160891128108766,
      -0.10906884799047771,
      0.32151856171338045,
      -0.39033751133473854,
      0.23992847959059843
    ],
    [
      -0.05626643260376838,
      -0.04340195069381954,
      0.1415853843346853,
      -0.2591887801137929,
      -0.050236258471894724,
      0.008106904551035238,
      0.19677519154914788,
      0.015959164694585196
    ],
    [
      -0.04576514260743685,
      0.20537650303219354,
      0.09521642564803354,
      -0.013841771781236505,
      -0.12038618127911804,
      0.0012543908767023828,
      0.10567085235866178,
      0.11142525716311336
    ],
    [
      0.12111795786712164,
      0.20296123597802432,
      -0.02338329022587487,
      0.14402913800201803,
      0.023886140995727757,
      0.013689696831248372,
      0.02763593196454356,
      0.02821602745677114
    ]
  ],
  "weights_hidden_output": [
    [
      -0.09613410263169855,
      -0.15291811857884943,
      0.17575649820837413
    ],
    [
      1.1700104422087387,
      1.0257025826963284,
      1.0277357094094217
    ],
    [
      -0.36717933872584313,
      -0.7154105572719173,
      -1.2346365045446277
    ],
    [
      1.86154252341197,
      2.1472486737045444,
      2.8764228755620795
    ],
    [
      -0.9535849658891999,
      -1.0777233486743452,
      -0.6745207079886991
    ],
    [
      1.575309167286124,
      1.550202428654669,
      1.3807829651043595
    ],
    [
      -1.8374778115621977,
      -1.8022812631085803,
      -2.712325360219843
    ],
    [
      1.390327168006109,
      1.5034643779295012,
      1.8885436601462917
    ]
  ],
  "bias_hidden": [
    [
      -0.0940974099918536,
      -0.37032478392751494,
      0.21614093063146939,
      -0.4387051487709187,
      0.220760614305471,
      -0.3001286298950117,
      0.5284228058547806,
      -0.5447049852162559
    ]
  ],
  "bias_output": [
    [
      -0.4884031998685171,
      -0.9425101368053574,
      -1.1244185681875682
    ]
  ],
  "input_size": 10,
  "hidden_size": 8,
  "output_size": 3,
  "learning_rate": 0.001
}