{
  "weights_input_hidden": [
    [
      -0.14222649038366983,
      0.38422241846952965,
      0.18669826307085002,
      -0.8696977084286733,
      -0.7291080152339643,
      0.5062852649443095,
      -0.13321402963039,
      0.21219146256760024
    ],
    [
      -0.25665741527401914,
      0.4935309394169506,
      -0.5728465335245807,
      0.6934050190779188,
      -0.608807537955765,
      0.8148874121860864,
      -1.055422537886843,
      0.8335026059525488
    ],
    [
      0.2233481539023199,
      -0.4913336657339135,
      -1.3911966704462997,
      -1.4321155668047605,
      0.5136726428889818,
      -0.9349031533498874,
      -0.3184916508208443,
      -0.186111698181986
    ],
    [
      0.08224682461940062,
      -0.21922832985910512,
      -0.634673973532155,
      -0.4158358181572373,
      -0.2743742340942605,
      -0.08977517148946294,
      -0.15530765280181075,
      -0.195222220108451
    ],
    [
      0.835402744002912,
      0.7086982495674206,
      -0.13535948745772886,
      5.442015044854386,
      0.7216720497427841,
      0.7582924294238562,
      -0.31880880858106336,
      0.9832151041922037
    ],
    [
      0.1049980657979158,
      2.3386186450339372,
      -1.034852218833289,
      4.54359198450319,
      -1.5976324916954887,
      3.4028366606905998,
      -4.0631582104768,
      3.4993533083620796
    ],
    [
      -0.09329068804779815,
      0.23026710708083803,
      -0.2867301354662436,
      0.45565030422286196,
      -0.24148917662457073,
      0.45988002531003547,
      -0.6064392493915797,
      0.38722028712437556
    ],
    [
      -0.06877706092185767,
      -0.30439518593298137,
      0.10039237301854759,
      -1.3568283856255963,
      0.10828235872760107,
      -0.4243877449992874,
      0.6092149478074032,
      -0.2895231780184529
    ],
    [
      -0.07346106115777114,
      0.1037892789811336,
      -0.08456103908563205,
      -0.0019116483802900709,
      -0.12078641610080684,
      -0.13332280349946138,
      0.11898973758537955,
      0.052448784464415726
    ],
    [
      0.12111795786712164,
      0.20296123597802432,
      -0.02338329022587487,
      0.14402913800201803,
      0.023886140995727757,
      0.013689696831248372,
      0.02763593196454356,
      0.02821602745677114
    ]
  ],
  "weights_hidden_output": [
    [
      -0.4993627535670314,
      -0.7265325149996379,
      -0.015117950979574577
    ],
    [
      1.5018053311215138,
      0.8924379633786556,
      0.5392821319026753
    ],
    [
      -0.6389829017219565,
      -0.7926697329114667,
      -2.0328707847794667
    ],
    [
      1.966880931639854,
      3.063355066769656,
      3.8736398208135228
    ],
    [
      -2.002202260101621,
      -1.7868756096993723,
      -0.5762769149483432
    ],
    [
      2.359741717311151,
      1.618888480224702,
      0.7970366421682104
    ],
    [
      -2.901588707547785,
      -1.9135763293491073,
      -3.281539049180402
    ],
    [
      1.8217289930337122,
      1.3019941953373169,
      1.7390189905659734
    ]
  ],
  "bias_hidden": [
    [
      -0.11989679870918724,
      -0.14955463288453488,
      0.08407297107208352,
      -0.05543860844552903,
      -0.0017655474014003645,
      0.3596091908693886,
      0.30166467937992314,
      -0.27954411443474486
    ]
  ],
  "bias_output": [
    [
      -0.7847793417782756,
      -1.5043247099176216,
      -1.6022660300040406
    ]
  ],
  "input_size": 10,
  "hidden_size": 8,
  "output_size": 3,
  "learning_rate": 0.05
}