{
  "weights_input_hidden": [
    [
      0.026223846762062006,
      0.07323799936077104,
      0.155381508492398,
      -0.4355570279641585,
      -0.24102551942209222,
      0.019247269507604782,
      0.1458569198541192,
      -0.03819359618751575
    ],
    [
      -0.17173880527308774,
      0.3514992875456765,
      -0.229430994688081,
      0.7032128271484503,
      -0.3371050125838255,
      0.6007248882231203,
      -0.5688286766847926,
      0.5283067834182031
    ],
    [
      0.07918789955135867,
      -0.5372231704839707,
      -0.4988839433830667,
      -0.534746760701803,
      0.5550742978451481,
      -0.777479613318716,
      0.005551348801737777,
      -0.26493343003747194
    ],
    [
      0.15576499619232964,
      -0.40773295880039084,
      -0.42580445554036456,
      -0.18222926795991254,
      0.09479024010283059,
      -0.28265663135865016,
      -0.23827258107765123,
      -0.15258146286727203
    ],
    [
      0.7133565888861738,
      1.1045557550523488,
      -0.3408040616593128,
      3.2753859703915165,
      0.22136900408339072,
      1.1474175605533967,
      -1.1211183973750976,
      1.4381095584826789
    ],
    [
      0.15746105506408223,
      2.006489821990296,
      -0.9848380253619139,
      3.911426977267474,
      -1.310252459595368,
      2.855256613504536,
      -3.3552181345625107,
      3.020198393895005
    ],
    [
      -0.06789339924527937,
      0.1669944177169855,
      -0.22720678836239933,
      0.3737374651301196,
      -0.14894463589932702,
      0.3736142296944555,
      -0.46249935904069767,
      0.2933717001000146
    ],
    [
      -0.07060348332519481,
      -0.12306820653578622,
      0.19881817371292682,
      -0.5986482522205805,
      -0.014846792291075168,
      -0.10990751491107366,
      0.39231539703326745,
      -0.11516301213630235
    ],
    [
      -0.05381398031294021,
      0.20994929014591723,
      0.0798341047433499,
      -0.12288567321207539,
      -0.14909401684213083,
      0.01642162141566903,
      0.08306588755611996,
      0.11224230593178391
    ],
    [
      0.12111795786712164,
      0.20296123597802432,
      -0.02338329022587487,
      0.14402913800201803,
      0.023886140995727757,
      0.013689696831248372,
      0.02763593196454356,
      0.02821602745677114
    ]
  ],
  "weights_hidden_output": [
    [
      -0.26042814282334503,
      -0.344132203059099,
      0.15399809310702994
    ],
    [
      1.286952998808019,
      1.0655410274363093,
      0.8660550838252539
    ],
    [
      -0.37621517283641526,
      -0.6963201835135493,
      -1.5934899422723727
    ],
    [
      1.7559383518264753,
      2.329962702987585,
      3.251666258877961
    ],
    [
      -1.3360980673655718,
      -1.3731770381008166,
      -0.6157346272368837
    ],
    [
      1.8486788131958487,
      1.6731099458345218,
      1.1914186727886653
    ],
    [
      -2.0958839033483745,
      -1.9180007298215984,
      -3.0734835610180244
    ],
    [
      1.521483907517054,
      1.5077228224189205,
      1.9133716546046837
    ]
  ],
  "bias_hidden": [
    [
      -0.0962210741117907,
      -0.27976130703999313,
      0.28221924485840405,
      -0.11471552927637511,
      0.1922277475458392,
      -0.07833786871731639,
      0.4742333043644694,
      -0.43608126817867665
    ]
  ],
  "bias_output": [
    [
      -0.5403759657193489,
      -1.1563142038095204,
      -1.3456415821001904
    ]
  ],
  "input_size": 10,
  "hidden_size": 8,
  "output_size": 3,
  "learning_rate": 0.01
}